{
  "actor": {
    "layer1": {
      "weight": [
        [
          0.2613959014415741,
          0.3240814507007599,
          -0.4151591956615448,
          0.06334614753723145,
          0.6683713793754578,
          0.45120489597320557
        ],
        [
          -0.2678537964820862,
          -0.06905794143676758,
          0.16219432651996613,
          -0.09032796323299408,
          1.1830158233642578,
          0.6794682741165161
        ],
        [
          0.22859002649784088,
          -0.2019709050655365,
          0.11456476151943207,
          -0.160036101937294,
          -0.8266705870628357,
          0.027604611590504646
        ],
        [
          0.1010255515575409,
          0.28681516647338867,
          0.10635046660900116,
          0.3665614128112793,
          1.1346460580825806,
          0.8030523061752319
        ],
        [
          0.35743096470832825,
          0.28828755021095276,
          0.2455413043498993,
          0.2178294062614441,
          -0.06789731979370117,
          0.4441682994365692
        ],
        [
          0.35071703791618347,
          0.10674649477005005,
          0.066708043217659,
          -0.37362557649612427,
          -0.8998013138771057,
          -0.22879113256931305
        ],
        [
          0.11797849088907242,
          -0.2669924199581146,
          0.41882753372192383,
          -0.10321088880300522,
          -0.3767215609550476,
          -0.1584947407245636
        ],
        [
          0.425503134727478,
          -0.0775022804737091,
          0.2714976370334625,
          -0.3034251630306244,
          -0.08002635836601257,
          -0.44757556915283203
        ],
        [
          -0.028324168175458908,
          0.4203703999519348,
          0.13912756741046906,
          0.017415421083569527,
          -0.49373531341552734,
          -0.6255184412002563
        ],
        [
          -0.20095908641815186,
          0.11190672218799591,
          0.2302148938179016,
          -0.21573637425899506,
          -0.5396384000778198,
          -0.6905046105384827
        ],
        [
          0.15047527849674225,
          0.29447025060653687,
          0.2372136265039444,
          -0.3084298372268677,
          -0.8570084571838379,
          -0.19847004115581512
        ],
        [
          -0.1513385772705078,
          -0.016350863501429558,
          -0.03474859148263931,
          -0.3863558769226074,
          -0.597272515296936,
          -0.44907981157302856
        ],
        [
          0.11264625936746597,
          -0.22179840505123138,
          -0.27739453315734863,
          -0.3535348176956177,
          -1.062717080116272,
          -0.875846266746521
        ],
        [
          0.28754571080207825,
          0.41388553380966187,
          -0.3458077907562256,
          -0.3526812195777893,
          0.5599359273910522,
          -0.21242427825927734
        ],
        [
          -0.14100757241249084,
          0.3157579004764557,
          0.13269250094890594,
          0.274272620677948,
          0.2821381092071533,
          0.09200546890497208
        ],
        [
          0.29161325097084045,
          0.36945733428001404,
          0.09564734995365143,
          -0.1923612356185913,
          0.5394899249076843,
          0.27515020966529846
        ],
        [
          0.046189188957214355,
          0.36858871579170227,
          -0.04463215172290802,
          -0.10824546217918396,
          1.2931005954742432,
          0.4800730049610138
        ],
        [
          0.2805939316749573,
          -0.17875997722148895,
          -0.004471202846616507,
          0.137512668967247,
          0.12261132150888443,
          0.10725542157888412
        ],
        [
          -0.3562129735946655,
          0.2719234526157379,
          -0.2295912206172943,
          -0.3478906452655792,
          1.272428035736084,
          1.0324594974517822
        ],
        [
          0.3539751470088959,
          0.09674399346113205,
          0.067486472427845,
          -0.09300581365823746,
          -0.7083290815353394,
          -0.7332537174224854
        ],
        [
          0.09175656735897064,
          0.34138309955596924,
          -0.1589282602071762,
          0.1741761416196823,
          0.677323579788208,
          0.5464109778404236
        ],
        [
          0.23192067444324493,
          -0.3046841323375702,
          -0.2249678671360016,
          0.191884845495224,
          -0.07236805558204651,
          -0.03875602036714554
        ],
        [
          -0.04437825456261635,
          0.26197585463523865,
          -0.1817498803138733,
          0.16166993975639343,
          1.0815489292144775,
          0.7585858702659607
        ],
        [
          0.2517707645893097,
          0.3304831087589264,
          -0.25580230355262756,
          0.19514000415802002,
          0.37957385182380676,
          0.11655320227146149
        ],
        [
          0.24308021366596222,
          -0.11256694048643112,
          0.1553337424993515,
          -0.33331620693206787,
          0.9445366859436035,
          0.6347429156303406
        ],
        [
          0.1186404898762703,
          -0.3996823728084564,
          0.17180286347866058,
          0.00749383307993412,
          -0.0673387348651886,
          -0.3764513432979584
        ],
        [
          0.2641611695289612,
          -0.07245386391878128,
          0.13438500463962555,
          -0.4386135935783386,
          -0.7916134595870972,
          -0.7743406295776367
        ],
        [
          0.3409833312034607,
          0.18139523267745972,
          -0.4075371325016022,
          0.322536826133728,
          -0.32478177547454834,
          -0.39286401867866516
        ],
        [
          -0.004074879921972752,
          -0.28783178329467773,
          0.14143981039524078,
          -0.12706317007541656,
          0.0883694738149643,
          -0.11846742779016495
        ],
        [
          0.28843554854393005,
          -0.11587187647819519,
          -0.39430513978004456,
          -0.40039846301078796,
          0.924551784992218,
          0.8427054286003113
        ],
        [
          -0.23867467045783997,
          0.03756042569875717,
          0.025241006165742874,
          -0.2689010798931122,
          -1.3053423166275024,
          -1.0810582637786865
        ],
        [
          0.32002803683280945,
          -0.3074023723602295,
          0.08397193998098373,
          0.31736698746681213,
          -0.03336162492632866,
          0.25340786576271057
        ],
        [
          -0.030458349734544754,
          0.1127123087644577,
          -0.2778157591819763,
          -0.11648827791213989,
          1.0732656717300415,
          0.7041823863983154
        ],
        [
          0.34585246443748474,
          -0.2128496617078781,
          -0.31759101152420044,
          -0.14848065376281738,
          -0.05565427988767624,
          -0.012234548106789589
        ],
        [
          -0.013407180085778236,
          -0.04862458258867264,
          0.24605692923069,
          0.45854106545448303,
          -0.4759054183959961,
          -0.014332961291074753
        ],
        [
          -0.10227269679307938,
          0.22371387481689453,
          -0.12072955816984177,
          0.3072988986968994,
          -0.5535343289375305,
          -0.8324012756347656
        ],
        [
          0.039055004715919495,
          -0.307275652885437,
          0.27553030848503113,
          -0.09015147387981415,
          -0.027368957176804543,
          0.14414983987808228
        ],
        [
          0.2873890995979309,
          0.07383490353822708,
          -0.1910732090473175,
          -0.1372920721769333,
          -0.282383531332016,
          0.17921987175941467
        ],
        [
          -0.3797350525856018,
          0.38877663016319275,
          -0.14254143834114075,
          0.39424455165863037,
          -0.5613874793052673,
          -0.6753731966018677
        ],
        [
          0.32154354453086853,
          0.3047013580799103,
          0.16459162533283234,
          -0.2274368405342102,
          -1.202377200126648,
          -1.0670487880706787
        ],
        [
          0.008620117790997028,
          -0.16688472032546997,
          0.4246037006378174,
          0.1406436264514923,
          -0.10228700190782547,
          -0.4599512219429016
        ],
        [
          0.3533209562301636,
          -0.10275024175643921,
          -0.30272984504699707,
          -0.2940964996814728,
          1.048937201499939,
          0.6851223707199097
        ],
        [
          0.09582385420799255,
          -0.3390510380268097,
          0.2133038341999054,
          -0.13068583607673645,
          0.3217616677284241,
          0.11708434671163559
        ],
        [
          -0.15196450054645538,
          0.005569303408265114,
          -0.20085324347019196,
          0.42582350969314575,
          0.6519875526428223,
          0.3018437922000885
        ],
        [
          0.09414897859096527,
          0.15809808671474457,
          -0.05809469893574715,
          0.15326228737831116,
          -1.0655262470245361,
          -0.08861083537340164
        ],
        [
          0.03485887870192528,
          0.4308635890483856,
          0.28868547081947327,
          -0.051794975996017456,
          -1.0177578926086426,
          -0.5863372683525085
        ],
        [
          -0.42165255546569824,
          0.4547989070415497,
          0.3142003118991852,
          -0.22460219264030457,
          -1.1025516986846924,
          -0.6430200934410095
        ],
        [
          0.22991172969341278,
          0.045174699276685715,
          0.23924310505390167,
          -0.2604735791683197,
          1.2392619848251343,
          0.607664167881012
        ],
        [
          0.08290226012468338,
          0.10704945027828217,
          0.17738813161849976,
          0.4077729880809784,
          -0.6180247664451599,
          -0.487781286239624
        ],
        [
          -0.1995866298675537,
          -0.09907807409763336,
          -0.3733828663825989,
          0.20484445989131927,
          0.5555306077003479,
          0.36756187677383423
        ],
        [
          0.20167779922485352,
          0.277911901473999,
          0.04591571167111397,
          0.1895875632762909,
          0.5635433793067932,
          0.7766135334968567
        ],
        [
          -0.15697744488716125,
          0.4056472182273865,
          0.10015225410461426,
          -0.17424525320529938,
          1.1672037839889526,
          1.0245025157928467
        ],
        [
          0.29760104417800903,
          0.3180007338523865,
          0.3038865327835083,
          -0.0029965995345264673,
          1.1953370571136475,
          0.5724920630455017
        ],
        [
          -0.3992604911327362,
          -0.13390770554542542,
          -0.2447664439678192,
          0.45899051427841187,
          -0.18135495483875275,
          -0.38862746953964233
        ],
        [
          -0.25904884934425354,
          0.27053946256637573,
          -0.19659937918186188,
          -0.13014240562915802,
          -0.8818870782852173,
          -0.8097299933433533
        ],
        [
          0.21096129715442657,
          0.2511160969734192,
          -0.02213924005627632,
          0.004526740871369839,
          -1.2009217739105225,
          -0.7796666622161865
        ],
        [
          0.06975119560956955,
          0.27142566442489624,
          -0.05026599392294884,
          -0.05010654777288437,
          1.1907199621200562,
          1.0665578842163086
        ],
        [
          -0.3241685926914215,
          -0.34764012694358826,
          0.2709604799747467,
          -0.3170066177845001,
          -0.5004144906997681,
          0.022713053971529007
        ],
        [
          0.37015587091445923,
          -0.11870059370994568,
          -0.2543516457080841,
          0.3796406686306,
          -0.7656448483467102,
          -0.05662662908434868
        ],
        [
          -0.2586318254470825,
          0.026526179164648056,
          0.02953026071190834,
          -0.03406933322548866,
          -0.4195578396320343,
          -0.23456540703773499
        ],
        [
          -0.10276038944721222,
          0.18870319426059723,
          0.2295762300491333,
          0.016647186130285263,
          1.2026073932647705,
          0.5571439862251282
        ],
        [
          0.2944050431251526,
          -0.4177497923374176,
          0.1349688172340393,
          -0.14992667734622955,
          0.09042591601610184,
          -0.36574316024780273
        ],
        [
          -0.32036566734313965,
          -0.12116879224777222,
          -0.06642619520425797,
          0.2724982500076294,
          0.36233747005462646,
          0.28530171513557434
        ],
        [
          -0.22386744618415833,
          -0.08502597361803055,
          -0.22847528755664825,
          0.07809939235448837,
          -1.172059178352356,
          -0.8685587644577026
        ],
        [
          0.27771589159965515,
          -0.17606696486473083,
          -0.04296465218067169,
          0.34756356477737427,
          -0.11351930350065231,
          -0.21036306023597717
        ],
        [
          0.10409066081047058,
          0.11669186502695084,
          0.04708980396389961,
          -0.19488583505153656,
          1.1949563026428223,
          0.8351575136184692
        ],
        [
          -0.4032570421695709,
          0.04693824425339699,
          0.19645440578460693,
          0.3518418073654175,
          -0.5259727239608765,
          -0.029852641746401787
        ],
        [
          0.3095763027667999,
          -0.18373757600784302,
          -0.3299098312854767,
          0.37105193734169006,
          0.10657484084367752,
          0.27872151136398315
        ],
        [
          0.37962841987609863,
          -0.3588050305843353,
          0.23773951828479767,
          0.48367056250572205,
          -0.1426239013671875,
          -0.3788367509841919
        ],
        [
          0.3337966799736023,
          0.1745968759059906,
          0.059953320771455765,
          -0.3376886546611786,
          -0.2505318224430084,
          -0.42569831013679504
        ],
        [
          -0.05365773290395737,
          0.38700562715530396,
          -0.2245672196149826,
          -0.15686805546283722,
          -0.9083278775215149,
          -0.860630214214325
        ],
        [
          -0.2011616975069046,
          0.30283722281455994,
          -0.055433616042137146,
          -0.3343757092952728,
          1.2632066011428833,
          0.4455091059207916
        ],
        [
          0.11553391814231873,
          0.2101423293352127,
          0.031753409653902054,
          -0.06896215677261353,
          -1.0312983989715576,
          -0.9588832259178162
        ],
        [
          0.05496644601225853,
          -0.31578993797302246,
          0.00794230680912733,
          -0.16787376999855042,
          0.3674503266811371,
          -0.3677669167518616
        ],
        [
          -0.017938323318958282,
          -0.19490434229373932,
          -0.2860621511936188,
          0.05565327778458595,
          0.01399164367467165,
          0.0050633735954761505
        ],
        [
          0.3531181216239929,
          0.039530057460069656,
          -0.3716508746147156,
          -0.17659440636634827,
          -0.815754771232605,
          -0.2774897813796997
        ],
        [
          0.3157787024974823,
          0.4379999339580536,
          -0.3330749571323395,
          -0.23356211185455322,
          -1.0489813089370728,
          -0.9681311845779419
        ],
        [
          -0.32861950993537903,
          0.24972504377365112,
          0.0018697292543947697,
          0.14392298460006714,
          0.9571166634559631,
          0.806895911693573
        ],
        [
          -0.3054967522621155,
          -0.1895199716091156,
          0.394064337015152,
          -0.07544410973787308,
          0.47219613194465637,
          0.23311781883239746
        ],
        [
          0.24232077598571777,
          0.3799743354320526,
          -0.2291714996099472,
          -0.06778431683778763,
          -0.34332576394081116,
          -0.7164372205734253
        ],
        [
          0.07391602545976639,
          0.3564273416996002,
          0.07836338877677917,
          0.06886645406484604,
          -0.9686755537986755,
          -0.34167566895484924
        ],
        [
          -0.43943431973457336,
          -0.2749135494232178,
          -0.08531523495912552,
          0.31238821148872375,
          -0.10185524821281433,
          0.16504190862178802
        ],
        [
          -0.3444640338420868,
          0.3443804383277893,
          -0.2955419719219208,
          -0.06119319051504135,
          -0.5372164845466614,
          -0.24113008379936218
        ],
        [
          -0.20863908529281616,
          0.34132659435272217,
          0.28548336029052734,
          -0.04561351239681244,
          -1.1243298053741455,
          -0.6378273963928223
        ],
        [
          -0.3719199597835541,
          -0.2819092869758606,
          -0.21416838467121124,
          -0.04528846591711044,
          -0.8524195551872253,
          -0.6953380107879639
        ],
        [
          -0.10215386003255844,
          -0.2226472944021225,
          -0.060133691877126694,
          0.23179782927036285,
          0.7046289443969727,
          0.6187945008277893
        ],
        [
          0.05106310546398163,
          -0.117915578186512,
          -0.07351654022932053,
          -0.332407146692276,
          1.233356237411499,
          0.849692702293396
        ],
        [
          -0.31746959686279297,
          -0.14013217389583588,
          -0.3439134359359741,
          -0.09277950972318649,
          0.06530558317899704,
          0.4820454716682434
        ],
        [
          0.10834148526191711,
          0.1447213590145111,
          -0.253863126039505,
          0.2644442915916443,
          1.0805542469024658,
          0.39047372341156006
        ],
        [
          -0.2474174201488495,
          0.3988470733165741,
          0.2664090394973755,
          0.11391529440879822,
          1.1620451211929321,
          0.8794689774513245
        ],
        [
          -0.31529247760772705,
          -0.30510249733924866,
          0.28725191950798035,
          0.04859991744160652,
          0.1122637689113617,
          -0.17427287995815277
        ],
        [
          0.3049466013908386,
          -0.060424163937568665,
          0.40832245349884033,
          0.3341989517211914,
          0.44383421540260315,
          0.5007741451263428
        ],
        [
          0.038301680237054825,
          -0.12215740233659744,
          0.37124672532081604,
          -0.09446518123149872,
          0.8964514136314392,
          0.5438171625137329
        ],
        [
          -0.3058640956878662,
          -0.01422053948044777,
          0.3169076144695282,
          -0.35001692175865173,
          0.44904038310050964,
          0.586029052734375
        ],
        [
          0.12767037749290466,
          -0.4290115237236023,
          0.07090361416339874,
          0.11310204118490219,
          0.21618859469890594,
          -0.244205042719841
        ],
        [
          -0.052041225135326385,
          0.25933822989463806,
          0.08992370218038559,
          0.23260073363780975,
          0.5011534094810486,
          -0.14666156470775604
        ],
        [
          -0.13300666213035583,
          -0.23073841631412506,
          -0.016585180535912514,
          -0.2874700725078583,
          -1.0586962699890137,
          -0.521028995513916
        ],
        [
          -0.05320144444704056,
          -0.038475606590509415,
          0.10639119893312454,
          0.12061981111764908,
          -0.06227017939090729,
          0.024806436151266098
        ],
        [
          0.25941765308380127,
          -0.08490060269832611,
          -0.13245922327041626,
          -0.2031489759683609,
          0.09459403902292252,
          0.3078564703464508
        ],
        [
          -0.3709215223789215,
          0.16877961158752441,
          0.3361557126045227,
          -0.20632727444171906,
          0.633589506149292,
          0.7020450830459595
        ],
        [
          0.22936175763607025,
          0.0958360806107521,
          -0.014372306875884533,
          0.4222322702407837,
          0.24304963648319244,
          0.6836530566215515
        ],
        [
          0.3340930938720703,
          0.015500704757869244,
          -0.04306327924132347,
          -0.27243074774742126,
          0.5536767840385437,
          0.4649277627468109
        ],
        [
          0.1137557402253151,
          0.10473527759313583,
          -0.050390779972076416,
          0.10258873552083969,
          -1.1061468124389648,
          -0.5235455632209778
        ],
        [
          -0.06519753485918045,
          -0.41176101565361023,
          0.08613041788339615,
          -0.13655628263950348,
          0.1062174066901207,
          -0.22350187599658966
        ],
        [
          0.02384723164141178,
          -0.21750539541244507,
          0.2141166627407074,
          -0.012659700587391853,
          -0.5606651902198792,
          -0.7874447703361511
        ],
        [
          -0.14357197284698486,
          0.20818424224853516,
          0.17285944521427155,
          -0.2726288139820099,
          0.5634596943855286,
          0.4318491816520691
        ],
        [
          -0.1028548926115036,
          -0.010600141249597073,
          0.34750738739967346,
          0.34160637855529785,
          -0.2408776879310608,
          -0.06752830743789673
        ],
        [
          0.43683764338493347,
          -0.35973960161209106,
          0.13745583593845367,
          -0.23186859488487244,
          -0.46118712425231934,
          -0.05533577501773834
        ],
        [
          -0.3240383565425873,
          0.2443927675485611,
          0.352558434009552,
          0.44150224328041077,
          -0.6750096082687378,
          -0.4592718482017517
        ],
        [
          0.36136603355407715,
          0.11804717779159546,
          0.29801836609840393,
          0.014800606295466423,
          -0.18224404752254486,
          -0.2441941201686859
        ],
        [
          -0.1891876608133316,
          -0.36088916659355164,
          0.009269850328564644,
          0.19110742211341858,
          0.20264963805675507,
          0.1345055103302002
        ],
        [
          -0.10234728455543518,
          0.18861103057861328,
          0.16649229824543,
          -0.17272396385669708,
          -1.0294296741485596,
          -0.7511158585548401
        ],
        [
          0.2627341151237488,
          0.21266479790210724,
          0.2860572636127472,
          0.19045422971248627,
          0.9297568202018738,
          0.758689284324646
        ],
        [
          -0.1321413367986679,
          0.1329011470079422,
          -0.19335365295410156,
          0.397879421710968,
          0.3541690409183502,
          -0.08115924894809723
        ],
        [
          0.34080928564071655,
          -0.0006352376076392829,
          -0.20789675414562225,
          -0.01988934725522995,
          0.9332921504974365,
          0.8462339043617249
        ],
        [
          -0.36197909712791443,
          0.18719582259655,
          -0.1581868678331375,
          0.015056048519909382,
          1.2244832515716553,
          0.8304010033607483
        ],
        [
          0.07318806648254395,
          0.035573165863752365,
          -0.1159684956073761,
          0.08564086258411407,
          0.9705595970153809,
          0.9628034234046936
        ],
        [
          -0.3497743606567383,
          -0.27563682198524475,
          0.2595899999141693,
          -0.2611255645751953,
          0.7429686188697815,
          0.765155017375946
        ],
        [
          -0.25601887702941895,
          0.16908149421215057,
          -0.2625092566013336,
          0.07469308376312256,
          -1.0444855690002441,
          -0.9708380103111267
        ],
        [
          -0.2452305257320404,
          0.2792910635471344,
          0.2783532440662384,
          0.05541326478123665,
          0.35433825850486755,
          0.49060317873954773
        ],
        [
          0.16940215229988098,
          0.22810421884059906,
          -0.40746140480041504,
          0.29550984501838684,
          -1.0833373069763184,
          -0.38988444209098816
        ],
        [
          -0.17157460749149323,
          0.036421749740839005,
          -0.35942861437797546,
          -0.3745972216129303,
          -0.8853904008865356,
          -0.7795878052711487
        ],
        [
          -0.07817232608795166,
          0.007879093289375305,
          0.13573057949543,
          -0.2983611524105072,
          -0.5804345607757568,
          -0.6858276128768921
        ],
        [
          -0.381304532289505,
          0.16931819915771484,
          -0.28434014320373535,
          -0.06420052796602249,
          -1.197385549545288,
          -0.8361247777938843
        ],
        [
          0.2461043745279312,
          0.01995825208723545,
          -0.27565887570381165,
          0.08905264735221863,
          1.0637704133987427,
          0.47448650002479553
        ],
        [
          0.15699885785579681,
          -0.40475019812583923,
          0.2251652479171753,
          0.046808380633592606,
          -0.15393680334091187,
          0.41801562905311584
        ],
        [
          -0.20016343891620636,
          0.4146607518196106,
          -0.2947346270084381,
          0.004176523070782423,
          0.9237534999847412,
          0.6846978068351746
        ],
        [
          -0.21912337839603424,
          0.2900591790676117,
          -0.04979126155376434,
          0.005681687034666538,
          0.7957583665847778,
          0.1664888560771942
        ]
      ],
      "bias": [
        -0.24132628738880157,
        0.43153655529022217,
        0.12107549607753754,
        0.4384489357471466,
        -0.3187180757522583,
        0.029115572571754456,
        -0.19951289892196655,
        -0.022794464603066444,
        0.18409691751003265,
        0.3426763713359833,
        0.28235694766044617,
        0.46202799677848816,
        0.22294855117797852,
        0.3658895790576935,
        -0.30498653650283813,
        0.2483513057231903,
        -0.01897062174975872,
        -0.16362440586090088,
        0.20519176125526428,
        0.4443601071834564,
        -0.14656707644462585,
        0.20342902839183807,
        0.07803791016340256,
        0.2388058602809906,
        0.056331779807806015,
        -0.2616563141345978,
        -0.05820387974381447,
        -0.19872066378593445,
        0.02042453922331333,
        0.22216647863388062,
        0.2902390956878662,
        0.07805456221103668,
        0.43572673201560974,
        -0.2834380865097046,
        0.1075691506266594,
        0.203878715634346,
        -0.33031436800956726,
        0.5272462964057922,
        -0.08402755111455917,
        -0.02752184309065342,
        0.049249496310949326,
        0.16405196487903595,
        -0.3568132817745209,
        0.15944522619247437,
        0.2052236944437027,
        -0.23440229892730713,
        -0.305311918258667,
        0.11846519261598587,
        -0.024455947801470757,
        -0.1379784345626831,
        -0.1253255009651184,
        -0.24193616211414337,
        0.11627603322267532,
        -0.0933448076248169,
        -0.19378051161766052,
        -0.022358950227499008,
        -0.11102476716041565,
        0.09007527679204941,
        0.18684275448322296,
        -0.21722279489040375,
        0.441795289516449,
        -0.10813753306865692,
        0.02408003620803356,
        0.4122723340988159,
        -0.21743319928646088,
        0.13039013743400574,
        0.13297587633132935,
        -0.36685827374458313,
        0.32618477940559387,
        0.09019012749195099,
        -0.22824662923812866,
        0.11995629221200943,
        0.1882806122303009,
        -0.28768351674079895,
        0.049391474574804306,
        -0.2040661722421646,
        0.04473445937037468,
        -0.05425001308321953,
        0.251590371131897,
        0.4803953766822815,
        -0.08261450380086899,
        0.014433866366744041,
        0.22858214378356934,
        0.034536778926849365,
        0.2788597345352173,
        0.29347437620162964,
        0.44014084339141846,
        0.08227202296257019,
        -0.02779310569167137,
        0.04986206814646721,
        -0.003026258898898959,
        -0.1856020838022232,
        0.19839626550674438,
        -0.08025231212377548,
        0.08823887258768082,
        -0.18086546659469604,
        0.2586415708065033,
        0.5524483919143677,
        -0.14899133145809174,
        0.4130232632160187,
        -0.1550382822751999,
        -0.311674565076828,
        0.23291772603988647,
        -0.06588198989629745,
        0.46543553471565247,
        -0.34491053223609924,
        -0.0003698327636811882,
        -0.14080089330673218,
        -0.3243038058280945,
        -0.17371521890163422,
        0.10389849543571472,
        0.07005579769611359,
        -0.14973367750644684,
        -0.287473201751709,
        0.2930580675601959,
        0.24636442959308624,
        0.24475324153900146,
        0.338196724653244,
        0.06946811079978943,
        0.3194752335548401,
        -0.03305845335125923,
        0.18115176260471344,
        -0.14847496151924133,
        0.46335554122924805,
        0.26748061180114746,
        -0.15441575646400452,
        -0.28142693638801575,
        -0.29998981952667236
      ]
    },
    "layer2": {
      "weight": [
        [
          0.018278641626238823,
          -0.00474231643602252,
          -0.047040242701768875,
          0.0712752640247345,
          0.06298712641000748,
          0.04163018986582756,
          0.0032167427707463503,
          0.03334670141339302,
          -0.02195443958044052,
          -0.0377805195748806,
          -0.09979291260242462,
          -0.005131957586854696,
          -0.09411808848381042,
          0.017856186255812645,
          0.08643403649330139,
          -0.05339822545647621,
          0.0955827608704567,
          -0.04335207864642143,
          0.07506199926137924,
          -0.1071401908993721,
          -0.044995419681072235,
          0.04809138551354408,
          0.054537054151296616,
          0.0804290845990181,
          0.05539047345519066,
          0.0005997972912155092,
          0.04070889949798584,
          -0.08250577002763748,
          -0.013297056779265404,
          0.03556562960147858,
          0.021720590069890022,
          0.016949202865362167,
          0.022052528336644173,
          -0.038095202296972275,
          0.14454153180122375,
          -0.07044928520917892,
          -0.058415696024894714,
          -0.014034300111234188,
          0.014717185869812965,
          0.029993506148457527,
          0.023894062265753746,
          -0.0028621710371226072,
          0.08876652270555496,
          -0.003333705011755228,
          0.029039697721600533,
          -0.07123679667711258,
          0.031040288507938385,
          0.13177451491355896,
          0.11848892271518707,
          -0.04296127334237099,
          0.018054140731692314,
          0.13467010855674744,
          -0.01932418718934059,
          0.005393323954194784,
          -0.06332141160964966,
          -0.08173618465662003,
          0.12666504085063934,
          -0.0686686560511589,
          -0.02573571912944317,
          0.11072348803281784,
          -0.007307327352464199,
          -0.046900760382413864,
          0.028698591515421867,
          -0.0015248681884258986,
          0.021611249074339867,
          0.06264010816812515,
          -0.013531741686165333,
          0.05793946981430054,
          0.06723179668188095,
          0.018001504242420197,
          -0.0810861587524414,
          0.0662890151143074,
          0.015492920763790607,
          0.08310113102197647,
          0.004907945636659861,
          0.03449791669845581,
          -0.0957430899143219,
          0.04500589892268181,
          -0.017781797796487808,
          0.06863211840391159,
          0.0222780704498291,
          0.05487166717648506,
          -0.010369048453867435,
          -0.005933581385761499,
          0.03706294298171997,
          -0.008124825544655323,
          -0.022180086001753807,
          -0.015645576640963554,
          0.03120739758014679,
          0.09212691336870193,
          -0.004999171476811171,
          0.10798368602991104,
          0.11187612265348434,
          -0.011403338052332401,
          -0.019807491451501846,
          0.138600155711174,
          -0.11412837356328964,
          -0.04945443570613861,
          -0.03248317912220955,
          -0.0917152613401413,
          0.02943696640431881,
          -0.017347002401947975,
          -0.09183128923177719,
          0.03238615766167641,
          -0.006697296164929867,
          0.036610931158065796,
          0.05396737903356552,
          0.04199456796050072,
          0.09064844250679016,
          -0.015676120296120644,
          -0.07114677876234055,
          -0.039029303938150406,
          0.13476786017417908,
          0.015424325130879879,
          0.1133059561252594,
          -3.5486249544192106e-05,
          0.07415115088224411,
          0.008199788630008698,
          -0.01692482829093933,
          0.03585636988282204,
          0.012112529017031193,
          -0.0750863328576088,
          -0.04523630067706108,
          -0.03808027133345604,
          -0.026761136949062347,
          -0.021445492282509804,
          0.10096153616905212,
          0.11112012714147568
        ],
        [
          0.03627430275082588,
          -0.11443649977445602,
          0.0011076417285948992,
          0.04080483317375183,
          -8.83890243130736e-05,
          0.004535845015197992,
          0.005600546021014452,
          -0.012412434443831444,
          0.05411422997713089,
          0.06377136707305908,
          0.008236225694417953,
          0.09967386722564697,
          0.05306803062558174,
          0.08869635313749313,
          -0.0014661314198747277,
          0.1311781406402588,
          -0.0916864424943924,
          0.03180115297436714,
          0.0636497512459755,
          0.07468105852603912,
          0.05066762864589691,
          -0.11033651232719421,
          -0.07745132595300674,
          0.08996061980724335,
          0.03703475743532181,
          -0.03647691756486893,
          0.0017472581239417195,
          -0.02635088749229908,
          -0.043154027312994,
          0.007479620166122913,
          0.15544366836547852,
          -0.04867352545261383,
          0.06252159923315048,
          0.014492753893136978,
          0.008755466900765896,
          0.06183704733848572,
          0.04780061915516853,
          0.13817806541919708,
          0.09964717924594879,
          0.03660717234015465,
          0.0888444259762764,
          -0.10675880312919617,
          -0.0489916130900383,
          -0.06616820394992828,
          0.1715853363275528,
          0.10460163652896881,
          -0.010196368210017681,
          -0.09519950300455093,
          -0.002687122905626893,
          -0.10628315806388855,
          0.024817297235131264,
          -0.10798914730548859,
          -0.0051841712556779385,
          0.010120266117155552,
          0.07630031555891037,
          0.1522981971502304,
          -0.18705400824546814,
          -0.0814739540219307,
          0.07062482833862305,
          0.0007015221053734422,
          0.04735837131738663,
          0.07445661723613739,
          -0.09891147911548615,
          0.17558719217777252,
          -0.034443553537130356,
          -0.0022863743361085653,
          -0.014750070869922638,
          -0.09045231342315674,
          -0.08410913497209549,
          0.03792423754930496,
          0.09174064546823502,
          -0.05013136565685272,
          0.16667450964450836,
          -0.036409080028533936,
          -0.030798299238085747,
          0.09477517753839493,
          0.03266802430152893,
          -0.07715174555778503,
          -0.10523959994316101,
          0.12436464428901672,
          0.05233539640903473,
          -0.00827024132013321,
          -0.017332954332232475,
          0.031070878729224205,
          0.0327020026743412,
          -0.18011946976184845,
          -0.09463431686162949,
          0.07459110766649246,
          -0.1489047259092331,
          -0.11060794442892075,
          -0.008599841967225075,
          -0.07029564678668976,
          -0.11411049962043762,
          -0.04783237352967262,
          0.06628840416669846,
          0.020652201026678085,
          0.1571083813905716,
          0.04666595906019211,
          0.054115258157253265,
          0.018519902601838112,
          -0.00467072706669569,
          -0.04976547136902809,
          0.1036541536450386,
          -0.003523276187479496,
          0.11085550487041473,
          -0.05156436935067177,
          -0.033483147621154785,
          -0.023695608600974083,
          0.013946141116321087,
          0.048364102840423584,
          -0.00019873208657372743,
          0.06895102560520172,
          -0.001547323539853096,
          0.06142181530594826,
          -0.08201128989458084,
          0.06529973447322845,
          -0.08413279056549072,
          0.03388785943388939,
          0.006363199558109045,
          0.02560899592936039,
          0.04678262025117874,
          0.048488542437553406,
          0.031151827424764633,
          0.03700922429561615,
          -0.05445580929517746,
          -0.004690115340054035,
          -0.11602599918842316,
          -0.13329117000102997
        ],
        [
          -0.0319136343896389,
          0.15830081701278687,
          -0.033454351127147675,
          0.08550764620304108,
          -0.02462531253695488,
          -0.030169039964675903,
          -0.1164969950914383,
          0.09015413373708725,
          0.10480737686157227,
          -0.06108959764242172,
          -0.025811800733208656,
          0.055158767849206924,
          0.03002251125872135,
          0.019636245444417,
          0.01570655219256878,
          0.06888870149850845,
          0.031799204647541046,
          -0.01578284054994583,
          0.05997151508927345,
          0.017348626628518105,
          0.13153599202632904,
          -0.09376540035009384,
          0.1380298137664795,
          0.12745095789432526,
          0.09570137411355972,
          -0.0655445083975792,
          -0.07233677059412003,
          -0.12941579520702362,
          0.04073464125394821,
          0.09947644174098969,
          -0.028193200007081032,
          0.07530825585126877,
          0.04721644148230553,
          -0.02155209705233574,
          -0.007686842232942581,
          0.04096376150846481,
          -0.04776580259203911,
          0.007456939201802015,
          -0.08648493885993958,
          -0.10306656360626221,
          -0.11009486019611359,
          0.11106623709201813,
          -0.07198449224233627,
          -0.005685374606400728,
          0.06979022175073624,
          0.046856578439474106,
          -0.07958851009607315,
          0.02388499677181244,
          -0.02282777614891529,
          0.0664241686463356,
          0.04301576316356659,
          0.13823334872722626,
          0.14383797347545624,
          -0.09608537703752518,
          -0.12819026410579681,
          -0.06764326989650726,
          0.1442645788192749,
          -0.04551500454545021,
          0.0194027591496706,
          -0.06456445157527924,
          0.11789299547672272,
          -0.10924016684293747,
          0.028020795434713364,
          -0.06902395933866501,
          -0.03178819268941879,
          0.16534562408924103,
          0.035204965621232986,
          -0.008478252217173576,
          0.00691179558634758,
          0.08385565876960754,
          -0.10468941181898117,
          0.003953990526497364,
          0.013987523503601551,
          -0.05445399135351181,
          0.018496226519346237,
          -0.05789616331458092,
          -0.04975210502743721,
          0.09715460240840912,
          0.0819643959403038,
          0.1286652833223343,
          0.009852751158177853,
          -0.004052485339343548,
          0.10289695113897324,
          0.038992974907159805,
          -0.0053282310254871845,
          0.11187814921140671,
          0.047301165759563446,
          0.05103721097111702,
          0.07812996953725815,
          0.0885239839553833,
          0.03161146491765976,
          0.06437636911869049,
          0.14106908440589905,
          0.018549544736742973,
          -0.05305727571249008,
          -0.04892374575138092,
          -0.00766340084373951,
          -0.005627780687063932,
          -0.055031102150678635,
          0.13526639342308044,
          0.040641434490680695,
          0.0880613699555397,
          0.03181636705994606,
          0.08227883279323578,
          0.09278140962123871,
          -0.04173306003212929,
          -0.09210454672574997,
          -0.017740128561854362,
          -0.12223783880472183,
          -0.022914135828614235,
          0.052368681877851486,
          -0.01515241526067257,
          -0.011445971205830574,
          0.06745873391628265,
          0.0781111791729927,
          0.16934219002723694,
          0.10845083743333817,
          0.08460293710231781,
          -0.12066306173801422,
          0.04790244624018669,
          0.003185349516570568,
          -0.0956396833062172,
          -0.013305559754371643,
          0.033326804637908936,
          0.17187421023845673,
          -0.020165376365184784,
          0.0896386206150055,
          0.05057921260595322
        ],
        [
          -0.07635267823934555,
          -0.03695715591311455,
          0.016061918810009956,
          0.07725612074136734,
          -0.037513453513383865,
          0.013449546881020069,
          -0.0377793125808239,
          -0.00380146992392838,
          0.0782146230340004,
          -0.015034920535981655,
          -0.09783050417900085,
          -0.0035523995757102966,
          0.0722903162240982,
          -0.0800756961107254,
          -0.012218809686601162,
          -0.05759156867861748,
          -0.0024578915908932686,
          0.008184518665075302,
          0.008605225011706352,
          0.05653543025255203,
          -0.05803370848298073,
          0.050381775945425034,
          -0.0678606852889061,
          0.05054144188761711,
          -0.09609377384185791,
          0.08138063549995422,
          -0.0696861669421196,
          0.06156224384903908,
          -0.0692889615893364,
          0.011353512294590473,
          0.0598563626408577,
          0.039468344300985336,
          0.06614378094673157,
          0.06325624883174896,
          0.024639539420604706,
          -0.010892489925026894,
          0.015094899572432041,
          -0.039245814085006714,
          0.005793163552880287,
          0.06009384244680405,
          -0.06844095885753632,
          -0.05028987675905228,
          -0.003858586773276329,
          -0.013445792719721794,
          0.0016457716701552272,
          0.023593923076987267,
          -0.09331516921520233,
          -0.1011916771531105,
          0.027904806658625603,
          -0.0718112513422966,
          -0.008618185296654701,
          -0.06432283669710159,
          -0.03780439868569374,
          0.06792665272951126,
          0.06063327193260193,
          -0.011272124014794827,
          0.04347594082355499,
          -0.04729251563549042,
          0.011306083761155605,
          -0.05757483094930649,
          -0.07642509043216705,
          -0.02771795727312565,
          -0.019252562895417213,
          -0.09623932093381882,
          0.0926068127155304,
          0.034756384789943695,
          -0.05985848978161812,
          0.07405112683773041,
          0.025224002078175545,
          0.06682097166776657,
          0.054839469492435455,
          -0.011644926853477955,
          -0.08585819602012634,
          -0.08173602819442749,
          -0.02656845562160015,
          0.0401744544506073,
          -0.015312767587602139,
          0.009837319143116474,
          0.04857093095779419,
          -0.0038437063340097666,
          0.05559186637401581,
          0.0013200286775827408,
          -0.09723960608243942,
          -0.04806223511695862,
          0.04191766679286957,
          -0.06305540353059769,
          0.03341861814260483,
          -0.030123144388198853,
          -0.016231657937169075,
          0.09834817796945572,
          -0.04408032074570656,
          0.09052210301160812,
          0.029603157192468643,
          -0.011289514601230621,
          -0.0005578675772994757,
          -0.012864679098129272,
          -0.07792843878269196,
          -0.038541290909051895,
          0.04155721515417099,
          0.028456585481762886,
          0.017559867352247238,
          -0.007880198769271374,
          0.0290676336735487,
          0.05342600867152214,
          0.025209633633494377,
          0.0019279111875221133,
          0.03300163894891739,
          0.0067740269005298615,
          -0.038228582590818405,
          -0.07289370149374008,
          0.01966949552297592,
          0.07614491879940033,
          0.05008941888809204,
          -0.033041778951883316,
          -0.0725458413362503,
          -0.03126182034611702,
          0.052644990384578705,
          0.010316909290850163,
          -0.09341049194335938,
          -0.06377311050891876,
          0.014446672983467579,
          -0.009566284716129303,
          0.021587975323200226,
          0.04126304015517235,
          0.07544568181037903,
          -0.03496083989739418,
          -0.034714631736278534,
          0.019115621224045753
        ],
        [
          0.07902970165014267,
          -0.0012677193153649569,
          0.08446673303842545,
          -0.033326052129268646,
          0.03505052253603935,
          -0.024300238117575645,
          0.0041554756462574005,
          0.022795945405960083,
          -0.01909106969833374,
          0.11079268157482147,
          0.03490278497338295,
          -0.00956327561289072,
          0.17961767315864563,
          -0.04334646463394165,
          -0.03488769382238388,
          0.06402028352022171,
          0.032450105994939804,
          0.08433274179697037,
          -0.10923745483160019,
          0.06081484630703926,
          -0.05861919745802879,
          -0.09666737169027328,
          -0.10102228820323944,
          0.015657031908631325,
          0.019606254994869232,
          0.10075181722640991,
          0.04577282816171646,
          0.0343642495572567,
          0.08780089765787125,
          -0.041079793125391006,
          0.12398060411214828,
          0.05670016258955002,
          -0.08607721328735352,
          0.03762838616967201,
          0.012593581341207027,
          0.05695003271102905,
          -0.01973537541925907,
          0.0014925439609214664,
          -0.0419449657201767,
          0.13889577984809875,
          0.09362854063510895,
          -0.008988572284579277,
          -0.024900337681174278,
          -0.06431175023317337,
          0.04068559408187866,
          0.0170917809009552,
          0.04532724246382713,
          -0.016269683837890625,
          0.033555611968040466,
          0.042219266295433044,
          -0.1198626309633255,
          -0.038322992622852325,
          0.03234846889972687,
          -0.042573027312755585,
          -0.005267007742077112,
          0.12757720053195953,
          -0.1474168300628662,
          0.012794867157936096,
          0.00015567704394925386,
          0.05652909725904465,
          -0.04028906673192978,
          0.04063887894153595,
          -0.13469374179840088,
          0.19358931481838226,
          -0.04156752675771713,
          -0.14310967922210693,
          0.06749944388866425,
          -0.01546449027955532,
          0.011646877974271774,
          -0.039447005838155746,
          0.08611448854207993,
          0.07015836238861084,
          0.17539939284324646,
          0.06603913754224777,
          0.009197655133903027,
          0.11142933368682861,
          0.12372223287820816,
          -0.07849277555942535,
          0.03510015085339546,
          0.00500463554635644,
          -0.025476545095443726,
          -0.08829081058502197,
          -0.02174595184624195,
          0.11424503475427628,
          0.06580483168363571,
          -0.1345062255859375,
          -0.07872434705495834,
          -0.0052071125246584415,
          0.022604838013648987,
          -0.04120691120624542,
          0.03680404648184776,
          -0.012791666202247143,
          -0.002401482779532671,
          0.03992990031838417,
          -0.03154629096388817,
          -0.09096056967973709,
          0.18991102278232574,
          0.13087916374206543,
          -0.060884129256010056,
          0.0436825230717659,
          0.014890278689563274,
          -0.0007069404236972332,
          0.12369483709335327,
          0.00023455775226466358,
          0.12115845829248428,
          -0.04382721707224846,
          0.05109694227576256,
          0.08861836791038513,
          0.09765726327896118,
          -0.01656695082783699,
          -0.09559192508459091,
          0.030488576740026474,
          -0.09918585419654846,
          -0.05084914714097977,
          -0.09347335994243622,
          -0.02956155315041542,
          -0.13750560581684113,
          -0.05842919647693634,
          0.15077541768550873,
          -0.0034441938623785973,
          0.1281970888376236,
          0.05587727949023247,
          0.09047777950763702,
          0.15666796267032623,
          -0.08988519757986069,
          0.06481117010116577,
          0.04469709470868111,
          -0.08881473541259766
        ],
        [
          -0.0704127624630928,
          0.0682702511548996,
          0.028070000931620598,
          0.023992342874407768,
          -0.07442928850650787,
          -0.08151336759328842,
          0.04751542955636978,
          -0.00264748465269804,
          -0.07343748956918716,
          0.03360479697585106,
          -0.04561064392328262,
          -0.07459338754415512,
          -0.035377562046051025,
          0.023255929350852966,
          -0.036394983530044556,
          -0.0023997733369469643,
          0.03698432072997093,
          -0.06856047362089157,
          -0.0054315319284796715,
          -0.0036690453998744488,
          0.04588871821761131,
          0.03939102217555046,
          0.032592471688985825,
          0.040437594056129456,
          -0.029094533994793892,
          0.04851424694061279,
          -0.010077448561787605,
          0.07277707755565643,
          0.006181920412927866,
          0.043050915002822876,
          -0.0270848385989666,
          0.052371684461832047,
          0.03144620358943939,
          -0.07027348130941391,
          0.0436435341835022,
          -0.054823923856019974,
          0.02849767543375492,
          0.032575689256191254,
          -0.08376982808113098,
          -0.017815060913562775,
          -0.05260739102959633,
          -0.06814910471439362,
          -0.08685718476772308,
          -0.052563492208719254,
          -0.005174784921109676,
          -0.03959299251437187,
          0.06316813826560974,
          0.019893070682883263,
          -0.012222154065966606,
          -0.06585026532411575,
          -0.07234875112771988,
          -0.0861147940158844,
          -0.004098521079868078,
          0.005800754763185978,
          -0.029851211234927177,
          -0.06420895457267761,
          0.053707364946603775,
          0.02479654923081398,
          -0.05724027007818222,
          -0.07345428317785263,
          -0.06379342079162598,
          -0.07492940127849579,
          0.06786605715751648,
          -0.03096608631312847,
          -0.07016228884458542,
          0.028746772557497025,
          0.018102165311574936,
          0.0807553380727768,
          0.0694463700056076,
          -0.04848632961511612,
          -0.03336602449417114,
          0.03813914954662323,
          -0.05289970338344574,
          -0.01489533856511116,
          0.04266619682312012,
          -0.08454560488462448,
          0.06515871733427048,
          0.04783114045858383,
          -0.03862394019961357,
          -0.009864738211035728,
          -0.007082825060933828,
          -0.025048650801181793,
          0.03809770941734314,
          0.026335088536143303,
          0.06289476901292801,
          -0.07359884679317474,
          -0.01311043556779623,
          -0.04180803894996643,
          -0.02662922814488411,
          -0.028702611103653908,
          -0.03781474009156227,
          0.08313082903623581,
          0.043630048632621765,
          0.05167652294039726,
          0.036531660705804825,
          -0.01952081359922886,
          -0.02546790800988674,
          -0.05242100730538368,
          0.07862851023674011,
          -0.07611300051212311,
          -0.04944489896297455,
          -0.06661497801542282,
          -0.0011720667826011777,
          0.026486091315746307,
          -0.08043062686920166,
          -0.0674462765455246,
          -0.03367559611797333,
          -0.03010101616382599,
          -0.034470777958631516,
          0.04138041287660599,
          -0.006054668687283993,
          -0.03017216920852661,
          -0.055966489017009735,
          -0.06656359881162643,
          -0.06477971374988556,
          0.016128888353705406,
          0.036750540137290955,
          0.010566288605332375,
          -0.005245985463261604,
          0.0387902706861496,
          0.03392389416694641,
          -0.07124943286180496,
          0.02329544723033905,
          -0.07836828380823135,
          0.03740772604942322,
          0.08387774974107742,
          -0.02622927725315094,
          0.031273119151592255
        ],
        [
          0.016512027010321617,
          0.18697670102119446,
          -0.03663584217429161,
          0.08858928084373474,
          -0.05866723507642746,
          0.07354231178760529,
          -0.07942367345094681,
          0.009659367613494396,
          -0.0480039082467556,
          0.08461924642324448,
          -0.029420357197523117,
          -0.07362338155508041,
          -0.058415692299604416,
          -0.050727199763059616,
          0.003790181363001466,
          0.048804473131895065,
          0.11758352816104889,
          -0.06215142086148262,
          0.15333040058612823,
          0.09354689717292786,
          -0.0009363024146296084,
          0.05368647351861,
          0.12124227732419968,
          0.10777651518583298,
          0.09805779904127121,
          -0.014115915633738041,
          -0.06688623875379562,
          -0.0195903480052948,
          0.0024078835267573595,
          -7.730097422609106e-05,
          -0.035513654351234436,
          0.01356600783765316,
          0.10729467868804932,
          -0.012195819057524204,
          0.027315383777022362,
          0.0023315262515097857,
          -0.03991581127047539,
          0.09474848210811615,
          -0.07102076709270477,
          -0.11916167289018631,
          -0.04884326830506325,
          0.04270447418093681,
          0.05991193279623985,
          0.056892022490501404,
          0.05608656257390976,
          -0.0458984337747097,
          -0.014508000575006008,
          0.1293862760066986,
          -0.1305600106716156,
          -0.000566295173484832,
          0.019293643534183502,
          0.15164513885974884,
          0.11307070404291153,
          -0.11044417321681976,
          0.008520292118191719,
          -0.07614345848560333,
          0.1317794770002365,
          -0.008652345277369022,
          -0.08411574363708496,
          -0.0833120122551918,
          0.176579549908638,
          -0.1193600445985794,
          0.06644762307405472,
          -0.12528949975967407,
          -0.1105193942785263,
          0.04610694199800491,
          -0.008786693215370178,
          -0.027270320802927017,
          0.011695269495248795,
          -0.0030505836475640535,
          -0.10943739861249924,
          0.09499240666627884,
          -0.06425397098064423,
          0.04888088256120682,
          0.0086266053840518,
          -0.10699675977230072,
          -0.0035743433982133865,
          0.12251688539981842,
          -0.02185927703976631,
          0.0238507017493248,
          -0.0609731487929821,
          -0.017718490213155746,
          -0.0670623704791069,
          -0.031457703560590744,
          -0.06254247575998306,
          0.04625146836042404,
          0.03315223380923271,
          -0.0416305772960186,
          0.020071489736437798,
          0.14183492958545685,
          0.00403066398575902,
          -0.009955820627510548,
          0.11570699512958527,
          0.08960603177547455,
          0.022693408653140068,
          -0.012061020359396935,
          -0.16691716015338898,
          0.1407441943883896,
          0.021689454093575478,
          0.06404120475053787,
          -0.06302034109830856,
          -0.04362766817212105,
          -0.10934694111347198,
          -0.08646015077829361,
          0.04972323030233383,
          -0.028796104714274406,
          -0.08935199677944183,
          -0.11502217501401901,
          0.0025891519617289305,
          0.09220587462186813,
          0.08906908333301544,
          -0.019234593957662582,
          0.15437811613082886,
          0.028198424726724625,
          0.17168958485126495,
          0.013587425462901592,
          0.21522225439548492,
          0.13286475837230682,
          -0.11381237208843231,
          0.06548390537500381,
          -0.030263172462582588,
          -0.04834866523742676,
          -0.03875477984547615,
          -0.022940924391150475,
          0.06533148139715195,
          -0.060259345918893814,
          0.12274089455604553,
          0.023430926725268364
        ],
        [
          -0.004426628816872835,
          0.0517582967877388,
          -0.07753808796405792,
          0.10706870257854462,
          0.06929807364940643,
          -0.08592301607131958,
          -0.10641906410455704,
          0.030803069472312927,
          -0.03400036320090294,
          0.05265497416257858,
          0.057305119931697845,
          0.01312934048473835,
          -0.15353567898273468,
          -0.06184792518615723,
          -0.0022754317615181208,
          0.08112066984176636,
          0.10015050321817398,
          -0.07021818310022354,
          0.15036289393901825,
          -0.1307283192873001,
          0.0702761709690094,
          0.12864239513874054,
          0.19196483492851257,
          0.0628623440861702,
          0.08099570870399475,
          0.014032588340342045,
          -0.13540217280387878,
          0.05371764674782753,
          0.0011421449016779661,
          0.10892266035079956,
          -0.1755305379629135,
          0.08699150383472443,
          0.13075828552246094,
          -0.005583394318819046,
          -0.047726500779390335,
          -0.1087496280670166,
          0.022902444005012512,
          0.04416856914758682,
          -0.06145571544766426,
          -0.12824390828609467,
          -0.1044858917593956,
          0.10913831740617752,
          -0.016616132110357285,
          0.004688587971031666,
          -0.09896831214427948,
          -0.08772002905607224,
          0.04287002608180046,
          -0.00042589224176481366,
          -0.10066739469766617,
          0.019014880061149597,
          -0.008057349361479282,
          0.2063504457473755,
          0.038379404693841934,
          -0.02017868310213089,
          -0.006395726930350065,
          -0.2103973627090454,
          0.15831619501113892,
          0.0011025994317606091,
          -0.0034377763513475657,
          -0.001342136412858963,
          0.08470478653907776,
          -0.07778044044971466,
          -0.017351746559143066,
          -0.04428288713097572,
          -0.045534078031778336,
          0.02522836998105049,
          -0.031566694378852844,
          0.0519263818860054,
          0.0672430545091629,
          0.054600343108177185,
          0.010184458456933498,
          0.07453908026218414,
          -0.061158325523138046,
          0.051734115928411484,
          -0.0030644391663372517,
          -0.004457914270460606,
          -0.07058700174093246,
          0.11968626081943512,
          0.12576943635940552,
          0.007998182438313961,
          -0.11651946604251862,
          0.023778460919857025,
          0.06830395013093948,
          -0.1044551283121109,
          -0.0876043513417244,
          0.21019110083580017,
          0.08440439403057098,
          -0.015733269974589348,
          0.05590163916349411,
          0.05772607401013374,
          0.02410736493766308,
          0.015597363002598286,
          0.06273096054792404,
          -0.030040137469768524,
          0.047425299882888794,
          0.010290372185409069,
          -0.05883296579122543,
          0.05698198825120926,
          0.06424781680107117,
          0.10039333254098892,
          0.011317215859889984,
          0.03878433257341385,
          -0.1505798101425171,
          -0.04792844131588936,
          -0.02492067962884903,
          0.108000248670578,
          0.02129112184047699,
          -0.0027643933426588774,
          -0.05355902761220932,
          0.06689059734344482,
          -0.0529964305460453,
          -0.03017238713800907,
          0.10865134745836258,
          0.04868103563785553,
          0.02280939370393753,
          0.11004989594221115,
          0.12631060183048248,
          0.026947252452373505,
          -0.12932555377483368,
          -0.04609740525484085,
          -0.12450795620679855,
          -0.06474179774522781,
          -0.10458415001630783,
          0.007880819961428642,
          0.12906278669834137,
          0.0030646142549812794,
          0.08384212851524353,
          0.040564779192209244
        ],
        [
          -0.035930030047893524,
          0.12430679053068161,
          -0.09034731239080429,
          0.07742054015398026,
          -0.07134316116571426,
          0.031656473875045776,
          -0.07380028814077377,
          -0.03595156967639923,
          -0.003767527872696519,
          0.03454683721065521,
          -0.07775158435106277,
          -0.01930210366845131,
          -0.11893162876367569,
          -0.009623137302696705,
          0.06181630864739418,
          0.045381415635347366,
          0.034983254969120026,
          -0.05914349481463432,
          0.12815621495246887,
          -0.08802463114261627,
          -0.02993297018110752,
          0.02914121001958847,
          0.031224479898810387,
          -0.031155625358223915,
          -0.011698633432388306,
          0.06118069589138031,
          -0.07962069660425186,
          0.04574546217918396,
          -0.06110125780105591,
          0.02188040129840374,
          -0.11050485819578171,
          -0.02161639742553234,
          0.033175528049468994,
          0.001659844652749598,
          0.05180921405553818,
          -0.06445565819740295,
          0.04646285995841026,
          -0.0545327290892601,
          -0.011607123538851738,
          -0.04315723851323128,
          -0.12233542650938034,
          0.06898314505815506,
          0.016689447686076164,
          0.05652619153261185,
          0.02612367272377014,
          0.01490449346601963,
          0.07699614763259888,
          0.025765441358089447,
          -0.1273387372493744,
          0.11098802834749222,
          0.09237208962440491,
          0.11586867272853851,
          -0.008164525963366032,
          -0.007474622223526239,
          0.082398921251297,
          -0.1783125251531601,
          0.19815805554389954,
          0.010895621962845325,
          -0.030740266665816307,
          -0.007827183231711388,
          0.07826534658670425,
          -0.08634718507528305,
          0.09693106263875961,
          -0.06313695758581161,
          -0.1164037212729454,
          0.03078332170844078,
          -0.03355182707309723,
          0.014778387732803822,
          0.07362433522939682,
          0.039740100502967834,
          -0.05276897922158241,
          0.09077809005975723,
          -0.059748176485300064,
          -0.04165365546941757,
          -0.04376135393977165,
          -0.09943448007106781,
          -0.07365313917398453,
          0.1612713783979416,
          -0.013143859803676605,
          0.05335326865315437,
          -0.08413086086511612,
          0.03168867900967598,
          0.00567150441929698,
          -0.01136933546513319,
          -0.0124253174290061,
          0.07213563472032547,
          0.1415862739086151,
          0.06347785890102386,
          0.13582955300807953,
          0.05256173014640808,
          -0.03892398998141289,
          0.10462874174118042,
          0.029804198071360588,
          0.0500841923058033,
          -0.0678039938211441,
          0.06689000874757767,
          -0.10966121405363083,
          0.012533151544630527,
          -0.008903076872229576,
          -0.03593653067946434,
          0.052643369883298874,
          0.025402313098311424,
          -0.08306647837162018,
          -0.04898424819111824,
          -0.1980874240398407,
          0.09598905593156815,
          -0.08589529991149902,
          0.06902231276035309,
          -0.043116092681884766,
          -0.05656959488987923,
          -0.01810815930366516,
          0.025550225749611855,
          0.03082747757434845,
          -0.033957041800022125,
          0.11361678689718246,
          0.09010779857635498,
          0.13763056695461273,
          0.10332213342189789,
          -0.04637885466217995,
          0.05239681527018547,
          -0.0006454153335653245,
          0.06403765827417374,
          0.07113932818174362,
          -0.08187735825777054,
          0.10180677473545074,
          0.012800644151866436,
          0.07132847607135773,
          0.18246623873710632
        ],
        [
          -0.0018601984484121203,
          0.07692932337522507,
          0.03112339787185192,
          0.10908295959234238,
          -0.06229812279343605,
          -0.03393290564417839,
          -0.0220569409430027,
          -0.02717505767941475,
          0.06227840855717659,
          0.08964414149522781,
          -0.024506112560629845,
          0.08958939462900162,
          -0.08559483289718628,
          0.011588127352297306,
          -0.01651901565492153,
          0.07452724128961563,
          0.06672493368387222,
          0.031522899866104126,
          0.0085329944267869,
          -0.03238480165600777,
          0.0069754780270159245,
          -0.08062618225812912,
          0.07942862808704376,
          0.06650206446647644,
          0.00848388671875,
          -0.008861253969371319,
          -0.10329538583755493,
          0.0010647984454408288,
          -0.0025218543596565723,
          0.10671324282884598,
          0.012950093485414982,
          0.04218139499425888,
          0.11947169899940491,
          -0.10733674466609955,
          -0.09107548743486404,
          0.07283636927604675,
          -0.06691738963127136,
          0.06645053625106812,
          0.005863196216523647,
          -0.04066598415374756,
          -0.03775108978152275,
          0.08226328343153,
          -0.031830910593271255,
          -0.007403297815471888,
          0.05848545581102371,
          -0.002344296546652913,
          0.02583959884941578,
          0.1686384230852127,
          -0.04994967207312584,
          0.021358966827392578,
          0.12970152497291565,
          0.1316666305065155,
          0.06272147595882416,
          -0.04426083713769913,
          -0.0938246101140976,
          -0.12451910972595215,
          0.2718525826931,
          -0.035446181893348694,
          0.03621533885598183,
          0.01889113150537014,
          0.09004297107458115,
          -0.0026696370914578438,
          -0.052353546023368835,
          -0.11976370960474014,
          0.0012874833773821592,
          0.16186392307281494,
          -0.01976655051112175,
          0.04311756044626236,
          -0.07325185835361481,
          -0.0162313524633646,
          -0.048952531069517136,
          0.14530634880065918,
          -0.064860500395298,
          -0.030412396416068077,
          -0.08471274375915527,
          -0.1404929906129837,
          -0.019843123853206635,
          0.14521238207817078,
          0.06330547481775284,
          0.07464644312858582,
          0.054672740399837494,
          -0.10028751939535141,
          -0.06626834720373154,
          -0.08331625908613205,
          -0.09282177686691284,
          0.04762325435876846,
          0.10663452744483948,
          -0.025232138112187386,
          0.022831643000245094,
          0.02541957050561905,
          -0.03359736129641533,
          0.08160467445850372,
          0.13933327794075012,
          -0.03353087604045868,
          -0.07298709452152252,
          -0.03498981148004532,
          -0.09224829822778702,
          0.14491140842437744,
          -0.001970705110579729,
          0.09921322762966156,
          0.0047156629152596,
          0.09061675518751144,
          -0.03585589677095413,
          -0.009520803578197956,
          -0.06209750846028328,
          -0.022502273321151733,
          0.046809762716293335,
          -0.022142434492707253,
          -0.0036694335285574198,
          -0.0381961353123188,
          0.055938687175512314,
          -0.022835521027445793,
          0.09287261962890625,
          -0.046679481863975525,
          0.1492568850517273,
          0.14679723978042603,
          0.10569142550230026,
          0.02588708885014057,
          -0.1418144702911377,
          -0.027444159612059593,
          0.0011804988607764244,
          -0.054066214710474014,
          -0.0766666829586029,
          -0.08879704773426056,
          0.11076494306325912,
          0.048903677612543106,
          0.08129163831472397,
          -0.03987543657422066
        ],
        [
          0.0721016377210617,
          -0.14409708976745605,
          0.029072917997837067,
          -0.10556428134441376,
          0.08914681524038315,
          0.07196522504091263,
          0.10704214870929718,
          -0.044472433626651764,
          -0.036699507385492325,
          0.023084202781319618,
          0.011709817685186863,
          0.014268925413489342,
          0.017840903252363205,
          0.028993703424930573,
          0.06924464553594589,
          -0.04530944302678108,
          0.04191167280077934,
          -0.04703845828771591,
          -0.11476670205593109,
          -0.0248058270663023,
          0.004686819389462471,
          0.037054482847452164,
          0.02058001421391964,
          -0.034715890884399414,
          -0.0798284187912941,
          -0.003734257537871599,
          0.01304212398827076,
          0.04772474616765976,
          0.11545214802026749,
          -0.08975082635879517,
          0.08373861014842987,
          -0.042122188955545425,
          -0.031378623098134995,
          0.06305312365293503,
          0.12450475990772247,
          0.11324289441108704,
          0.020353877916932106,
          -0.052128344774246216,
          0.025380674749612808,
          0.10716699063777924,
          0.11098688840866089,
          0.016777649521827698,
          0.03336712718009949,
          0.02029377408325672,
          0.11616995930671692,
          0.08084959536790848,
          0.06377002596855164,
          -0.03976205363869667,
          0.051135677844285965,
          0.03609063848853111,
          -0.07397561520338058,
          -0.01715117320418358,
          0.05531859025359154,
          0.11010876297950745,
          0.11125367879867554,
          0.06002749130129814,
          -0.031016025692224503,
          0.10891677439212799,
          0.04356358200311661,
          -0.024177202954888344,
          0.04794071987271309,
          -0.016225481405854225,
          -0.05494340509176254,
          0.08642178773880005,
          0.10782303661108017,
          0.02144712023437023,
          0.08351517468690872,
          -0.052060212939977646,
          0.034960731863975525,
          0.03786148130893707,
          0.04534772410988808,
          0.0324699729681015,
          0.08754120022058487,
          -0.055736709386110306,
          -0.01687687076628208,
          0.06805170327425003,
          0.01164927240461111,
          0.0027962825261056423,
          0.028736021369695663,
          -0.007660286035388708,
          -0.027470575645565987,
          0.11121316999197006,
          -0.04389924183487892,
          0.10141120851039886,
          -0.05025980994105339,
          -0.03217911720275879,
          0.018607838079333305,
          -0.022172700613737106,
          0.0331709086894989,
          -0.032925575971603394,
          0.0574125237762928,
          0.0328187458217144,
          -0.025637198239564896,
          0.03698800131678581,
          -0.036807831376791,
          0.05722195282578468,
          0.09190540760755539,
          -0.047600045800209045,
          -0.017126670107245445,
          0.018099358305335045,
          0.10236306488513947,
          0.06637421250343323,
          0.03660248592495918,
          -0.08073501288890839,
          0.1113671213388443,
          0.050346579402685165,
          0.11394178122282028,
          0.054633814841508865,
          0.13673070073127747,
          -0.06950858980417252,
          -0.07059177756309509,
          0.0653754398226738,
          -0.024494927376508713,
          0.11513109505176544,
          -0.05679459124803543,
          -0.05010451748967171,
          -0.15249793231487274,
          -0.00336303748190403,
          0.06956937164068222,
          0.04432831332087517,
          0.21385329961776733,
          -0.02781599387526512,
          0.08608140796422958,
          0.03478448465466499,
          -0.07560929656028748,
          -0.02331637404859066,
          -0.07660917937755585,
          -0.05264968052506447
        ],
        [
          0.08627232164144516,
          0.062033895403146744,
          -0.017962127923965454,
          0.08292596787214279,
          0.033509012311697006,
          -0.03255365416407585,
          -0.04283124953508377,
          -0.06625451892614365,
          0.02059163898229599,
          -0.06361865252256393,
          0.03772472217679024,
          0.011438044719398022,
          -0.03777388110756874,
          -0.05191850662231445,
          0.12148953229188919,
          -0.01799583062529564,
          0.12271186709403992,
          0.06841139495372772,
          -0.006729355547577143,
          -0.0967210903763771,
          0.02750738523900509,
          0.011415816843509674,
          0.09484528005123138,
          -0.01358390785753727,
          0.0971473678946495,
          -0.041550591588020325,
          0.003009229665622115,
          -0.028887378051877022,
          0.007331437431275845,
          0.06178605183959007,
          -0.0745403990149498,
          0.06132412701845169,
          0.06502910703420639,
          0.07695118337869644,
          -0.009640633128583431,
          -0.08346573263406754,
          -0.07730928063392639,
          -0.07422247529029846,
          0.0347474068403244,
          -0.02771494723856449,
          -0.08975289016962051,
          0.02277880162000656,
          -0.007966981269419193,
          -0.038082972168922424,
          -0.057937514036893845,
          -0.022032858803868294,
          -0.07059860229492188,
          0.03657469525933266,
          0.0760321170091629,
          0.09739016741514206,
          0.09884586930274963,
          0.16240739822387695,
          -0.029342368245124817,
          0.05013972520828247,
          -0.08031114935874939,
          -0.09060132503509521,
          0.22094202041625977,
          0.07616065442562103,
          0.06305192410945892,
          0.00555135915055871,
          0.12021488696336746,
          0.00825683306902647,
          0.014603110030293465,
          -0.06482250243425369,
          -0.08621210604906082,
          0.15029609203338623,
          -0.0018032697262242436,
          -0.06078246608376503,
          -0.06190783157944679,
          0.027572471648454666,
          0.05501968786120415,
          0.13311924040317535,
          -0.04573485627770424,
          -0.04286402836441994,
          0.08382352441549301,
          -0.048125628381967545,
          0.025853611528873444,
          0.11970755457878113,
          0.018718507140874863,
          -0.041047025471925735,
          -0.022275125607848167,
          -0.036917854100465775,
          -0.05769908055663109,
          -0.09964381158351898,
          -0.0034529566764831543,
          0.18631936609745026,
          0.02570575848221779,
          0.083403579890728,
          0.09185946732759476,
          -0.0013363080797716975,
          0.048918116837739944,
          0.028425266966223717,
          -0.018829254433512688,
          0.05477060377597809,
          0.0594203844666481,
          0.14159706234931946,
          0.02067289873957634,
          0.061780910938978195,
          0.08975863456726074,
          -0.00093168014427647,
          -0.020722147077322006,
          0.049421168863773346,
          -0.024469327181577682,
          0.08608740568161011,
          -0.10683375597000122,
          0.03182309865951538,
          0.09912703186273575,
          -0.0853147879242897,
          -0.025882797315716743,
          0.02924221195280552,
          -0.027681469917297363,
          -0.06743459403514862,
          0.12567347288131714,
          0.07995878159999847,
          0.12006721645593643,
          -0.0002326525136595592,
          0.10238974541425705,
          0.0973825678229332,
          0.008534085005521774,
          0.10919656604528427,
          -0.05243026837706566,
          0.07950803637504578,
          -0.08334414660930634,
          -0.06785836815834045,
          0.11886472254991531,
          0.005773468408733606,
          0.019587557762861252,
          0.023518424481153488
        ],
        [
          -0.07438397407531738,
          -0.07992112636566162,
          -0.015771888196468353,
          0.00630432553589344,
          -0.04252489283680916,
          -0.01358871255069971,
          -0.045296166092157364,
          0.07042302191257477,
          -0.019932983443140984,
          -0.0865933820605278,
          -0.025820255279541016,
          0.042352788150310516,
          -0.08263940364122391,
          -0.021212667226791382,
          0.06826718896627426,
          -0.06685253232717514,
          0.004922077525407076,
          -0.02201005257666111,
          -0.05743654444813728,
          -0.006300121545791626,
          0.08319509774446487,
          -0.08003975450992584,
          0.017385300248861313,
          -0.06105758994817734,
          -0.06589093804359436,
          0.023511629551649094,
          -0.07928983122110367,
          0.07568920403718948,
          0.021882180124521255,
          0.018045246601104736,
          0.016336603090167046,
          -0.001266460050828755,
          0.05802984535694122,
          0.058999959379434586,
          0.07005047053098679,
          0.07498721778392792,
          0.031135698780417442,
          0.057139378041028976,
          0.00630399864166975,
          0.012810450047254562,
          0.052680663764476776,
          -0.0752764418721199,
          -0.028055766597390175,
          -0.03676939383149147,
          -0.022730637341737747,
          0.018828071653842926,
          0.06659843772649765,
          0.084646075963974,
          -0.0225825235247612,
          -0.08426576107740402,
          0.0019994147587567568,
          0.035279788076877594,
          -0.006504628341645002,
          0.03700251877307892,
          -0.08131091296672821,
          0.003417361294850707,
          -0.0841325968503952,
          0.004818870220333338,
          -0.028302324935793877,
          0.07206593453884125,
          -0.006055332254618406,
          0.08222296833992004,
          -0.011902585625648499,
          -0.019167300313711166,
          -0.07473296672105789,
          -0.0874849408864975,
          0.044227804988622665,
          -0.05860872194170952,
          -0.06756047159433365,
          -0.0854656845331192,
          -0.0072770011611282825,
          -0.0011910067405551672,
          -0.04432593286037445,
          0.003963426221162081,
          -0.004615796264261007,
          -0.01937328279018402,
          0.05725777894258499,
          -0.014673140831291676,
          -0.02606096677482128,
          0.07369886338710785,
          -0.015744829550385475,
          -0.06689773499965668,
          -0.03281686455011368,
          0.0325346477329731,
          -0.0433853343129158,
          -0.043213509023189545,
          0.07425421476364136,
          0.06307844072580338,
          -0.05564737692475319,
          -0.0805860385298729,
          -0.0009897133568301797,
          -0.05643341690301895,
          -0.08703607320785522,
          0.02671416848897934,
          -0.03694067895412445,
          -0.07269749790430069,
          0.02038796804845333,
          -0.017775138840079308,
          -0.050354860723018646,
          0.040815312415361404,
          -0.010605263523757458,
          0.03573772311210632,
          0.04866316169500351,
          0.056729719042778015,
          0.08418888598680496,
          0.05103040114045143,
          0.008918884210288525,
          0.008436123840510845,
          -0.015568002127110958,
          -0.03677883744239807,
          0.03227892145514488,
          -0.05062578245997429,
          -0.006237069610506296,
          -0.021954989060759544,
          0.03087604232132435,
          0.04550671949982643,
          -0.05900826305150986,
          -0.003067911136895418,
          -0.0882652997970581,
          -0.021873749792575836,
          0.02700289525091648,
          0.048822592943906784,
          -0.06493501365184784,
          -0.02984556369483471,
          0.05061381310224533,
          -0.08804892748594284,
          -0.0287602711468935,
          -0.05856200307607651
        ],
        [
          0.011188929900527,
          0.05408293753862381,
          -0.060546763241291046,
          -0.06664375960826874,
          0.023805689066648483,
          -0.058148033916950226,
          -0.00026701463502831757,
          0.07902903854846954,
          -0.04739663377404213,
          -0.010338176973164082,
          0.010870035737752914,
          -0.01027793250977993,
          0.10257646441459656,
          -0.07413215935230255,
          0.06353882700204849,
          -0.03962470218539238,
          -0.05237294360995293,
          0.05649270862340927,
          -0.05241164565086365,
          -0.005397981032729149,
          0.07142838090658188,
          -0.010543433018028736,
          0.02461155503988266,
          0.029643382877111435,
          -0.02962448261678219,
          -0.07431723922491074,
          -0.07848920673131943,
          0.017299925908446312,
          0.012308965437114239,
          -0.06382708996534348,
          -0.059339676052331924,
          0.0462496355175972,
          0.020292406901717186,
          -0.07419271767139435,
          0.025109952315688133,
          -0.05210347846150398,
          0.08066004514694214,
          0.03218701109290123,
          0.07110616564750671,
          -0.07450586557388306,
          0.056805189698934555,
          -0.035402342677116394,
          -0.04856611415743828,
          0.016890540719032288,
          0.06612030416727066,
          0.02711539715528488,
          -0.06378953903913498,
          0.037632498890161514,
          0.05878296121954918,
          -0.08479326218366623,
          -0.04524099454283714,
          -0.0010536498157307506,
          0.040704574435949326,
          0.018976259976625443,
          -0.07302478700876236,
          -0.023356104269623756,
          -0.04927462711930275,
          0.07733853906393051,
          0.054637596011161804,
          -0.05572439357638359,
          0.00781799852848053,
          -0.07074249535799026,
          -0.03761113062500954,
          -0.09031907469034195,
          -0.020852576941251755,
          -0.05897655338048935,
          -0.06632895767688751,
          -0.0532023124396801,
          -0.01166368555277586,
          0.03630390018224716,
          -0.010180657729506493,
          0.07240007817745209,
          0.06376901268959045,
          -0.08045561611652374,
          -0.062494438141584396,
          0.04851073771715164,
          0.04136650636792183,
          -0.06870941072702408,
          0.03457040712237358,
          0.038453202694654465,
          -0.060384493321180344,
          0.041771113872528076,
          0.0058168647810816765,
          0.02160128764808178,
          0.052121445536613464,
          -0.005478853825479746,
          -0.0025404670741409063,
          0.08079587668180466,
          -0.07505694776773453,
          -0.07052432000637054,
          -0.08110912144184113,
          0.022319629788398743,
          -0.04905547574162483,
          -0.08912022411823273,
          0.02114960178732872,
          -0.08053015172481537,
          -0.06406941264867783,
          -0.019448621198534966,
          -0.049147989600896835,
          -0.08437923341989517,
          -0.01887374185025692,
          0.05880042538046837,
          0.056221526116132736,
          -0.04526051878929138,
          -0.04466948285698891,
          0.04013954475522041,
          0.010115142911672592,
          0.013083558529615402,
          0.015414807014167309,
          -0.027360117062926292,
          -0.0529889240860939,
          0.06735207885503769,
          -0.022351374849677086,
          -0.09464289247989655,
          -0.02157982997596264,
          -0.006972118280827999,
          0.07450516521930695,
          0.00871964916586876,
          -0.09985505044460297,
          -0.08923431485891342,
          -0.03188435733318329,
          0.01575307361781597,
          -0.01847062073647976,
          -0.09411794692277908,
          -0.03775070980191231,
          -0.019005510956048965,
          0.05578900873661041,
          -0.05398276075720787
        ],
        [
          -0.076292484998703,
          -0.06002079322934151,
          0.011224744841456413,
          -0.04224276542663574,
          -0.03874766081571579,
          -0.08073694258928299,
          -0.05901796370744705,
          -0.047491949051618576,
          0.0017744953511282802,
          0.059821464121341705,
          -0.02474060095846653,
          -0.08374269306659698,
          0.005588361993432045,
          0.0760393738746643,
          0.011678997427225113,
          0.040647078305482864,
          0.0033787614665925503,
          0.08241096138954163,
          -0.08805997669696808,
          -0.007129458710551262,
          -0.09376834332942963,
          -0.0024159287568181753,
          -0.045740287750959396,
          -0.057397130876779556,
          -0.0324687734246254,
          0.01260780356824398,
          0.06698434054851532,
          0.04927527904510498,
          -0.055442873388528824,
          -0.07845153659582138,
          0.0779583752155304,
          0.08057977259159088,
          0.03801152482628822,
          0.0396757647395134,
          0.057362157851457596,
          0.013080678880214691,
          0.07674390822649002,
          -0.007076985202729702,
          0.00022396360873244703,
          0.07404524087905884,
          -0.01474880799651146,
          -0.05844202637672424,
          -0.03311373293399811,
          0.04339716210961342,
          -0.007464945316314697,
          -0.040460698306560516,
          0.034181155264377594,
          -0.03346273675560951,
          -0.04135242849588394,
          -0.029564350843429565,
          -0.022040074691176414,
          0.014657349325716496,
          0.07127953320741653,
          -0.0113650131970644,
          -0.0770062506198883,
          -0.06036880239844322,
          0.041141051799058914,
          0.04339270666241646,
          0.05837998911738396,
          -0.052721355110406876,
          -0.03393018990755081,
          -0.026317382231354713,
          0.0750703439116478,
          0.001488043344579637,
          0.07575973868370056,
          -0.026448266580700874,
          -0.019375206902623177,
          0.017886050045490265,
          0.019545389339327812,
          -0.034605056047439575,
          0.07987536489963531,
          0.035555437207221985,
          -0.011671592481434345,
          0.008510955609381199,
          -0.019906191155314445,
          -0.013458037748932838,
          0.044733040034770966,
          0.04288779944181442,
          -0.07219795882701874,
          -0.07221941649913788,
          -0.03035159409046173,
          -0.07563915103673935,
          0.04296364635229111,
          -0.09165507555007935,
          0.04691936820745468,
          -0.0009594365255907178,
          -0.0022663199342787266,
          0.028288664296269417,
          -0.012265217490494251,
          0.05107583478093147,
          0.06135553494095802,
          -0.04093277454376221,
          0.03548076003789902,
          -0.03589329496026039,
          -0.07533308863639832,
          0.04271947219967842,
          -0.026021698489785194,
          -0.08578187972307205,
          -0.056373655796051025,
          -0.09385599195957184,
          0.017188042402267456,
          0.06330651044845581,
          -0.06065058708190918,
          0.08053578436374664,
          -0.06406515091657639,
          0.05902347341179848,
          0.059977442026138306,
          0.019290866330266,
          0.049135372042655945,
          0.016467222943902016,
          -0.07442567497491837,
          -0.0232140701264143,
          0.0498734675347805,
          0.022113991901278496,
          0.010701131075620651,
          -0.058853622525930405,
          -0.07447182387113571,
          0.05360550433397293,
          -0.014263074845075607,
          0.04329515993595123,
          -0.047031253576278687,
          0.020350364968180656,
          -0.02478785254061222,
          0.07241567969322205,
          0.040685299783945084,
          -0.028608256950974464,
          -0.024500789120793343,
          -0.0600271075963974
        ],
        [
          0.06999567151069641,
          0.21776679158210754,
          0.017925970256328583,
          0.18836738169193268,
          -0.01336675975471735,
          0.05217266082763672,
          -0.02211630716919899,
          0.009687542915344238,
          0.07618804275989532,
          -0.035896021872758865,
          0.08912371844053268,
          0.0799686461687088,
          -0.07225895673036575,
          -0.017855413258075714,
          -0.0670464038848877,
          0.07222780585289001,
          -0.012312344275414944,
          -0.07273838669061661,
          0.13374033570289612,
          0.10353776067495346,
          0.12373276799917221,
          -0.01928023435175419,
          0.027336277067661285,
          0.12227998673915863,
          0.13341805338859558,
          0.03575354814529419,
          -0.08670977503061295,
          0.02561088092625141,
          -0.061240121722221375,
          0.019428031519055367,
          -0.028844410553574562,
          -0.0107736112549901,
          0.13407008349895477,
          0.03825610876083374,
          -0.11436138302087784,
          -0.015719033777713776,
          0.0006620457861572504,
          0.07314734905958176,
          0.026592956855893135,
          -0.11567765474319458,
          -0.02114264667034149,
          -0.007653049658983946,
          0.04829397052526474,
          -0.0013680533738806844,
          0.06501124799251556,
          -0.06989331543445587,
          -0.001298094168305397,
          0.12094590812921524,
          -0.04073537513613701,
          0.04125498607754707,
          -0.052634067833423615,
          0.14471623301506042,
          -0.017190387472510338,
          -0.12884043157100677,
          -0.05506833270192146,
          -0.06828083097934723,
          0.2099771499633789,
          -0.0007351314416155219,
          -0.04521908983588219,
          -0.09820209443569183,
          0.09069327265024185,
          -0.06240379810333252,
          -0.08296211808919907,
          -0.09270600974559784,
          -0.03088867850601673,
          0.028172634541988373,
          0.05041573941707611,
          -0.018013589084148407,
          0.054331254214048386,
          0.0456765741109848,
          -0.0027533029206097126,
          0.06821466237306595,
          -0.12513265013694763,
          -0.04302171990275383,
          -0.032200898975133896,
          -0.10556867718696594,
          -0.025401171296834946,
          0.026777399703860283,
          0.05182499438524246,
          0.07430177181959152,
          -0.04143267124891281,
          -0.11055344343185425,
          0.07313510030508041,
          -0.05765959247946739,
          -0.09831062704324722,
          0.043423786759376526,
          0.10961351543664932,
          0.00303537561558187,
          0.1417141556739807,
          0.09258413314819336,
          0.04366837069392204,
          -0.04452994838356972,
          0.1359824389219284,
          -0.03596564382314682,
          0.05747393146157265,
          0.03208845481276512,
          -0.011186481453478336,
          0.13358786702156067,
          -0.03872879594564438,
          0.13034842908382416,
          -0.059702783823013306,
          0.05515468865633011,
          -0.06902562081813812,
          0.048894766718149185,
          -0.04936162382364273,
          0.03700241446495056,
          -0.1402614712715149,
          -0.010884403251111507,
          -0.1538207083940506,
          0.07968512922525406,
          0.06666896492242813,
          0.025431297719478607,
          0.0037817873526364565,
          -0.027324259281158447,
          0.17375248670578003,
          0.07718171924352646,
          0.2636087238788605,
          0.10873957723379135,
          -0.04026290029287338,
          0.005637058988213539,
          -0.0027242442592978477,
          -0.08572442084550858,
          -0.04429616406559944,
          0.011166110634803772,
          0.16932092607021332,
          -0.07792829722166061,
          0.12377530336380005,
          0.05150643736124039
        ],
        [
          0.07109609991312027,
          0.0888587087392807,
          0.05285601690411568,
          -0.050680261105298996,
          0.04997893422842026,
          0.08233635127544403,
          0.04317831993103027,
          0.005296094808727503,
          -0.043093979358673096,
          -0.04659125208854675,
          -0.06287640333175659,
          0.09309947490692139,
          -0.10444634407758713,
          0.050622157752513885,
          0.0208581630140543,
          -0.002789478050544858,
          0.03822360560297966,
          0.043314140290021896,
          0.08648719638586044,
          -0.04979601129889488,
          -0.008251111023128033,
          -0.004417263902723789,
          0.06489015370607376,
          0.0014767581596970558,
          0.03368275240063667,
          -0.012869228608906269,
          -0.05174467712640762,
          0.024830691516399384,
          -0.06232733651995659,
          0.12003608793020248,
          -0.05875561758875847,
          0.05776025354862213,
          -0.043384112417697906,
          0.0037781130522489548,
          0.034845829010009766,
          -0.04164549708366394,
          -0.10373247414827347,
          0.023650988936424255,
          0.009253853932023048,
          -0.06660546362400055,
          -0.10236835479736328,
          -0.01794550195336342,
          -0.08032931387424469,
          0.12416169047355652,
          -0.08684825897216797,
          -0.03357003256678581,
          0.025494923815131187,
          0.09161864966154099,
          0.07863075286149979,
          0.048919808119535446,
          -0.0162738598883152,
          0.07977470010519028,
          0.09834542125463486,
          0.08990736305713654,
          0.0498829111456871,
          -0.06513860821723938,
          0.1766049563884735,
          -0.02267334796488285,
          -0.01928998902440071,
          0.008594347164034843,
          0.101920947432518,
          0.01864071749150753,
          0.1578391194343567,
          -0.06291478872299194,
          -0.05094572529196739,
          0.006691239774227142,
          0.043197210878133774,
          0.06972146034240723,
          -0.06763040274381638,
          -0.0244576595723629,
          -0.07262100279331207,
          -0.04092171788215637,
          -0.08152848482131958,
          0.05536563694477081,
          0.1294596642255783,
          0.004772046115249395,
          -0.006787236779928207,
          -0.0030688229016959667,
          0.012855934910476208,
          0.024585552513599396,
          -0.0735207349061966,
          0.05238938331604004,
          0.09270726889371872,
          0.010951622389256954,
          0.025196941569447517,
          0.05640479177236557,
          0.06270665675401688,
          0.06151105836033821,
          0.013204691000282764,
          0.01631390117108822,
          0.016452614217996597,
          -0.08052731305360794,
          0.026968825608491898,
          0.12512165307998657,
          -0.08010746538639069,
          0.05176621675491333,
          -0.09521222859621048,
          -0.050767507404088974,
          -0.03779495880007744,
          -0.06520585715770721,
          0.07186423987150192,
          0.09326471388339996,
          0.013869215734302998,
          0.00904674082994461,
          -0.1507786065340042,
          0.010699145495891571,
          -0.036451324820518494,
          0.02358185313642025,
          0.057138022035360336,
          0.023137737065553665,
          -0.016560455784201622,
          -0.006823121104389429,
          0.03918543830513954,
          -0.005036308895796537,
          -0.024385882541537285,
          0.06006176397204399,
          0.13055874407291412,
          0.1266157180070877,
          0.015576626174151897,
          0.05043095350265503,
          -0.014210170134902,
          0.08171171694993973,
          -0.040480636060237885,
          -0.03614269196987152,
          0.04295124113559723,
          -0.06655610352754593,
          0.0836077332496643,
          0.039539091289043427
        ],
        [
          -0.10527417063713074,
          0.13094697892665863,
          0.06703513860702515,
          0.14285452663898468,
          0.04430047795176506,
          0.01978674717247486,
          -0.0030159989837557077,
          0.05251084268093109,
          0.14394961297512054,
          0.06692276895046234,
